<?xml version="1.0" encoding="UTF-8"?>
<BIF VERSION="0.3"  xmlns="http://www.cs.ubc.ca/labs/lci/fopi/ve/XMLBIFv0_3"
	xmlns:xsi="http://www.w3.org/2001/XMLSchema-instance"
	xsi:schemaLocation="http://www.cs.ubc.ca/labs/lci/fopi/ve/XMLBIFv0_3 http://www.cs.ubc.ca/labs/lci/fopi/ve/XMLBIFv0_3/XMLBIFv0_3.xsd">
<NETWORK>
<NAME>Untitled</NAME>
<PROPERTY>detailed = </PROPERTY>
<PROPERTY>short = </PROPERTY>

<VARIABLE TYPE="nature">
	<NAME>A (IP)</NAME>
	<OUTCOME>T</OUTCOME>
	<OUTCOME>F</OUTCOME>
	<PROPERTY>position = (7430.82958984375, 5060.24658203125)</PROPERTY>
</VARIABLE>

<VARIABLE TYPE="nature">
	<NAME>B (LHW)</NAME>
	<OUTCOME>T</OUTCOME>
	<OUTCOME>F</OUTCOME>
	<PROPERTY>position = (7561.17041015625, 5065.044921875)</PROPERTY>
</VARIABLE>

<VARIABLE TYPE="nature">
	<NAME>C (CM)</NAME>
	<OUTCOME>T</OUTCOME>
	<OUTCOME>F</OUTCOME>
	<OBS>T</OBS>
	<PROPERTY>position = (7511.49853515625, 5161.5859375)</PROPERTY>
</VARIABLE>

<VARIABLE TYPE="nature">
	<NAME>D (GID)</NAME>
	<OUTCOME>T</OUTCOME>
	<OUTCOME>F</OUTCOME>
	<PROPERTY>position = (7424.111328125, 5279.755859375)</PROPERTY>
</VARIABLE>

<VARIABLE TYPE="nature">
	<NAME>E (ASL)</NAME>
	<OUTCOME>T</OUTCOME>
	<OUTCOME>F</OUTCOME>
	<PROPERTY>position = (7560.39013671875, 5263.52880859375)</PROPERTY>
</VARIABLE>

<VARIABLE TYPE="nature">
	<NAME>F</NAME>
	<OUTCOME>T</OUTCOME>
	<OUTCOME>F</OUTCOME>
	<PROPERTY>position = (7511.7119140625, 5398.75390625)</PROPERTY>
</VARIABLE>

<DEFINITION>
	<FOR>A (IP)</FOR>
	<TABLE>0.3 0.7</TABLE>
</DEFINITION>

<DEFINITION>
	<FOR>B (LHW)</FOR>
	<TABLE>0.4 0.6</TABLE>
</DEFINITION>

<DEFINITION>
	<FOR>C (CM)</FOR>
	<GIVEN>A (IP)</GIVEN>
	<GIVEN>B (LHW)</GIVEN>
	<TABLE>0.44 0.56 0.3 0.7 0.2 0.8 0.0 1.0</TABLE>
</DEFINITION>

<DEFINITION>
	<FOR>D (GID)</FOR>
	<GIVEN>C (CM)</GIVEN>
	<TABLE>0.5 0.5 0.05 0.95</TABLE>
</DEFINITION>

<DEFINITION>
	<FOR>E (ASL)</FOR>
	<GIVEN>C (CM)</GIVEN>
	<TABLE>0.9 0.1 0.1 0.9</TABLE>
</DEFINITION>

<DEFINITION>
	<FOR>F</FOR>
	<TABLE>0.5 0.5</TABLE>
</DEFINITION>
</NETWORK>
</BIF>
